-1.7731786530361753
-1.4420354428565012
-0.6284360708368705
-0.21659867374878577
0.350819547308428
1.0716824495969621
0.8187056501202742
0.41010714102423806
0.3838106608141415
-0.29450013106417244
-0.5207521622815721
-0.1804248645440664
-0.2884841009950176
-0.2625824683261341
-0.552240189621223
-0.014554891663592435
0.4291692983319209
0.7204832469712759
1.0449964641455989
0.1692890946281657
-0.5711362952434621
-0.9518407647482636
-1.0083714715892773
-1.0242408556555325
0.21537674029472978
0.530638986340946
-0.3807023672840466
0.3843869662515828
0.8335355828992047
1.0265397433443146
0.7615211092787161
0.7805820846573709
0.5996224108119087
0.43165454275715204
-0.2249711240902225
-0.5016457204963876
0.7611287573801453
0.26278420107301526
-0.04235947108394074
0.011960248703986556
-0.11476105681948423
0.005836103272614506
0.6940578342676819
2.544901570261225
4.191345975236755
-3.901219918496124
0.5366443650521089
2.2334999701410707
4.031925062966827
3.816377154870479
1.7066724784611544
1.5847550105421964
3.654813072017332
7.069670543537207
-0.1645595064098213
0.11515154297583031
-0.255558224637658
-0.28904677676441193
-0.36433237844416705
-0.6645282766824099
-0.5674077037474846
0.004520747648505734
1.2474174004466774
0.1318754140618801
-0.3586573202219053
0.09564658559724948
0.031099589654155303
-0.13121496245059588
-0.2267006052380439
0.2727978587336541
0.3969925207863926
0.27626629607652176
22.387536735000314
