-0.23186608624662938
0.20609942896551675
-0.6980792444261213
1.6674811216348495
-2.309384174922664
1.7474689310462515
-1.1892475789637678
0.3116891234397565
0.6567255690974645
0.18325257641703835
0.013339427089706798
-0.027298510516146096
-0.32924364232127695
0.1803874449734432
0.033888222081672005
0.2425232418433431
0.25831874863225324
0.3144308151653535
-0.11281251952215522
0.06403358799326514
0.033838772590524736
0.18799039850268495
0.0964213774004619
0.17777561535965491
-0.09627161535628571
0.1874956065273597
-0.1836439426352773
0.07894159569311206
0.09187248801230134
0.09746077444221427
-0.27355887122913913
0.09903596744444214
-0.013893587282664701
0.12678155757770126
0.12866160418317762
-0.06606349171340116
-0.06027500069795654
0.07825693239112143
0.08039318157801113
0.008547971002783691
-0.12376211838195261
0.14191152321254394
-0.05910860298698277
-0.037744961163881575
0.13242480886983943
0.003445827764556505
-0.053682385406714946
0.07677735330178768
0.09272769278858443
-0.43967366796195095
0.3628956081896358
0.1499108511007605
-0.28794172062866263
0.14077737911047394
0.25159136035529733
0.050094476927283554
-0.41698440984353774
-0.03015920552868384
0.10840501317678884
-0.3611978503288063
-0.0208728458968932
-0.14761357031502262
0.07412028372694106
0.21100312458690115
-0.24751558692707895
0.057607900521239964
-0.2989542579718089
0.2040296488050523
0.32782713648008094
-0.5041021300078099
0.2567527022551633
-0.055172312022947846
0.03091380466745122
-0.2381966227172586
0.9160117223816905
-1.2372977149061324
0.7599773301486439
0.8094479549406909
-1.5144600596130087
-0.49078091447543953
1.7695555875650866
0.3121856436530711
-1.1235081234823558
1.3996693706953705
-1.3011800511383116
-0.26588008547016434
0.4847553013258641
-0.7627561055298113
-1.2798539182759245
1.1617046443050882
0.007473847314330524
0.005120396756915164
0.006637317334634589
0.0007750665870179477
-0.0009707044663073464
-0.0008781246631728673
0.009127656100752831
0.005741630145219984
-9.115635329977909e-05
-0.18985694740119824
0.23671197702126487
-0.1654506857380967
0.10294605495471351
0.6510738374456527
-0.9588429158925382
0.45655271263395264
0.14503548962235105
-0.17543469552445987
0.07086071928443173
-0.059847622984336844
0.11995907641764234
-0.1610112405239499
0.19540566811761284
0.05837433788333343
0.10742715928302043
-0.08318822230353073
-0.22191733954749002
-0.4295850784238933
-0.10704989674359254
-0.05047071292406629
0.18239970081265885
-0.05543188717308765
-0.08094373259118445
-0.42068037793191254
-0.3370817659520656
0.052467582922236466
-0.09303915651325396
-0.38004614903653744
0.15984642057177137
-0.20323224329958553
-0.1300608675272842
0.2123118732787863
0.09227058663993089
0.07882923416700567
-0.35732210225535144
0.18084412562802496
0.39104851253617084
0.01953871335614372
-0.11274231556811917
0.23069153840204806
-0.29920684528300956
0.007698542936791276
-0.00774657269196247
-0.1801928327046999
-0.0008064662688245714
-0.020262551326034946
0.007030728950813468
-0.0336750452587939
0.010792250630524318
-0.017204646115032522
-0.0021183173971823753
0.04258149800949418
-0.030284979887431385
0.02723548576596843
0.011270262539195143
0.02790884313255547
-0.008242463759244641
-0.007806999663839438
-0.0017613600192067417
0.017311087027214074
-0.07431118580055629
0.04493680588268444
-0.5953075185570863
-0.9835590042734024
2.030986615420339
-1.7620332723274974
3.8210775150494007
-2.1438928233055576
-0.9531696231032059
1.1436444078068069
-0.5123367477424122
1.3594012597516272
0.23028009797697466
-1.0903691516873806
-0.2594624939406764
0.28644703011702694
0.13022356230888027
-1.4825700098590033
2.2101954867188427
1.1389146885557853
0.17013647242417232
0.042085485017216
0.49131309018870983
-1.3553698607966966
-0.6822346739592537
-0.16450387788473048
0.32380943778022947
0.6016527800488667
1.5070864056332742
1.2473990589959332
0.33213881931945904
-0.3660087470892965
1.5242557773372458
-0.7609334610392775
0.5552484376958184
-0.46399239751026883
-0.9449421834190316
0.17329162311550825
6.503482318325443
0.6370666605568767
2.62474293411475
-1.5035705143988745
-1.2108406598149273
1.1034750582988386
4.482110194217381
-0.26919388925971693
-1.4600789269427648
8.820595811575304
3.8942219120080686
1.5155287000655624
-1.6843297544854858
-1.3941048492277213
0.08867245575057692
5.050584617037476
0.4600082584047968
0.06636140173725495
-14.339450812720505
-3.775557213861404
-3.525698669937203
3.0957851729896735
4.006072684792902
-3.084151304986986
-7.234932113218031
0.029097207553488866
0.42688722440823146
-1.278152308995654
1.3449930262838892
-0.22216855744713127
0.9533435928761597
-1.2586880068268218
-2.1974460327207264
1.6336854284554745
-0.6367629879073664
2.410501912533186
-0.2708161029922859
-0.3935787099600516
-0.2560353986454699
-0.4534120988491338
-0.28111429426538026
0.5124496234208723
0.32077621501374026
0.502245897842457
2.7308625940295665
1.6009979619560446
0.5507178103434621
1.0470291928705218
-1.828694310919712
2.849292124992774
8.240172627270205
-12.595081258881894
2.226728945142255
27.673418495115527
-0.24523721513305743
-0.18484960302176928
-0.325756174432428
0.02576315972737994
0.1472556177678584
-0.02035504026932987
-0.3852374880534526
-0.2757435617477888
0.15463703849873514
-1.3837065844194132
1.1186792494549473
-1.0052223789686157
1.9697282300916308
-1.880663003776383
-0.09400586453712767
1.5885984467926022
-1.119431171971016
0.5738692761526879
0.1564387571032695
0.3555126536712833
-0.7774306410917413
0.515175590381889
-0.3472680236942553
-0.1006190709430693
-0.9633986682556909
0.2633454419233763
1.4157061485691158
-1.6569078335614742
-1.2755008365162588
-0.067056630275975
-0.2568999722560536
-0.13099163132379005
-0.15866365991591125
1.06555087747263
-0.1279067514582216
0.29979818726466884
0.045554966165861806
-0.1987666886290119
0.022636915300762166
-0.04028143852182997
-0.1443366988183423
0.2723862660082415
-0.0517267742404218
-0.3248365189558765
0.025255002631148566
0.16332428168175725
0.19100497538524397
-0.17166174540531443
0.04426482739017637
0.06674492072807223
-0.15040419285024587
-0.03546548660737525
-0.10536032717565211
0.07158365753394708
0.2361906414944621
0.7679530053992948
-0.41383488859070217
0.40542168261883704
-0.4807195970874794
0.426762962997123
-0.49051860764905775
-0.6669776843729996
0.5859586254939099
0.1106503188924561
-0.6033654400568517
-0.26985182970426824
0.04337990732063508
0.14792481865502854
0.06256760917223193
0.2381975095365205
0.6927297524112611
-0.6013095871750576
28.49143762592876
