-1.3571364328381843
-0.7336041584452717
3.70080994378077
-2.166223837521112
1.8450480472959794
0.6938229842313592
-0.9378693930175233
-1.2313624963602574
-0.2176956144357257
2.4334147498794376
1.4286553472485366
-3.243838220757199
2.9742489361936415
1.0886555651823646
-1.3795816076831677
-2.268479438990305
-0.4334215583765724
-2.739761342816573
-0.6644444104883317
-1.734101743858268
0.3398602911704223
-0.2324374514132444
-1.293425582291938
1.608246567607777
-1.5278828211658209
2.1762768378777384
0.1822011313195056
1.7277473658801386
1.2882815864777672
-1.625253625866243
1.021876761279816
1.3725226592567938
-1.0006098087422448
-1.641457791932547
-2.388465700438856
-0.4746470749030611
2.6587636172818687
-1.963176428654215
2.5660156145622737
0.02066654741997516
-1.4683467859399755
-0.7068251744974768
1.9381669460965518
-1.9529252595972528
0.37384182073461897
6.065577092647183
-2.2135365024044784
0.6874699011690175
0.9801805723235488
-1.8615337115148012
-3.7372637590665883
3.495117923151435
-0.08770413196599479
-0.19667269767652334
-7.69141037750099
4.494253970258477
-2.8178606244763005
-1.6780837766677
3.79779150299307
-0.06862940431078507
-0.31202192077188784
0.563679305842992
0.6633657648847013
-0.7549113292272985
1.828608728283283
-0.8347905856776519
-1.00870302696383
0.06480327583298157
-3.0529784718218487
2.3621262241296246
-1.8697986174381835
2.740544100008481
1.9144741013973985
-0.12422456109814223
-0.9735324482223258
1.1028195071274705
-0.9148101788959326
0.581369771037359
-1.3593448659318517
3.7737341890367797
1.412461143872086
-4.7562937437808115
1.8395142568357985
-3.3065048296195183
2.578420310113921
10.038595078545509
-1.2778693704087385
-0.6414995443057641
-2.2809793435292027
24.993914373886245
-0.1003712309286621
0.0020117329262344455
-0.005949843924167273
-0.09931886018693187
0.17348331758309438
0.043279396861242214
-0.3585839462297056
0.04731568490275921
0.10296342028367247
0.10905277144098943
0.3816141903154822
-0.24874969883157416
0.04952435352077722
-0.47327143154896684
-0.13222925907737815
1.3287785645058572
-2.291598153370724
1.233435582877492
-0.2814287961135409
0.3647283829773629
-0.265442424721818
-0.15237788383405393
-0.08223733927901744
-0.038803373454993365
-0.2861272128810865
-0.5150693355007071
0.44261896007370843
-2.143197919840291
-3.4620025099203002
3.254310148519278
-2.6237161356650596
-2.0629718810988957
1.1627676253673471
2.5776758720778727
4.176040217434351
2.192965495648546
0.5885300237552957
-0.5634898477411414
0.13530640917287592
0.5614519229825897
0.04381822496273556
0.5012992758654563
0.25109875833136913
-0.6251753139845208
0.0061038857512530215
0.15592313679795888
0.14355937022629575
-0.651568239562632
-0.4076413016869225
-0.25460878954205496
-0.43110788484661156
0.38037365546565155
-0.007796508226800549
0.28635669066834263
0.618469649802694
-0.16285273088036223
-0.4716997878053416
-0.15815337573971178
-0.44527476496307
0.8851835895337672
-1.2196620051602558
-0.24582705104548042
0.45748481456681583
0.12933008736966262
-0.5621440256673346
0.6227056734901532
-0.026821076969428106
0.28937128605413315
0.11895820548459844
-0.3089793728048712
1.436766897679036
-1.1575732499354727
28.495245230455236
