0.0048089429978235825
-0.037184583739347285
0.054432041938660664
-0.04431743519033475
0.03288151777947785
0.024865176333812807
-0.006357729699847112
-0.02041623414599813
-0.043301004016335264
0.03752540834773432
0.004519161232484284
-0.01846529493674437
0.008944863831934168
0.01732604271743143
0.0038577229809431475
-0.061310252109920214
0.05844357563791452
-0.020388219632788123
-0.00838337700232227
0.027239625528286498
-0.016221832453038116
0.0017784824615612114
-0.019340394334241874
0.04244312146501681
0.0145750388935203
-0.01823925217662451
0.0699526370545486
0.018174704807783975
-0.0022671944799727236
0.00494775028538715
0.004338152799956556
0.003875757930412947
0.013005417248390003
-0.020415865489738616
-0.023793195738649343
0.027201062191418768
0.05375201840819026
0.035921280980828155
0.05839069708049719
0.04074501658651121
0.07053372430574212
0.04620660348608068
0.03944491986493431
0.032482154848965585
0.015042338940673472
0.09160611405655344
0.06467497971471833
0.05227974467766917
0.12012098480034762
0.08954258302261611
0.04778017857812686
0.05564349869588025
0.09331457775060839
0.06420492177100007
-0.1350818673149415
-0.09473261014092973
-0.09458322404275685
-0.11105158892358533
-0.1366288389855704
-0.13940234138873245
-0.09503374416183086
-0.09073083418888679
-0.08764422385867837
-0.005359239991827132
0.01878508034173719
-0.006076369005157743
0.005058891810959275
-0.009806699822287206
-0.04452020786032997
0.03121220896700123
-0.01930813250251018
0.08317705128422573
0.0032163655099171377
0.0032700388617565904
-0.02111680873014681
0.025003866437166296
-0.001816188228001236
-0.03677544540411578
0.043434604600195006
0.03018791846328339
0.03360249285979499
0.0006716178406792702
0.009852883716265644
0.008810430827047362
-0.049806408116233304
0.08174902241364619
0.12108048537164326
-0.2527916604394643
0.0977300188461674
0.6297515420281963
-0.009129767096692101
-0.0032999295957121338
-0.007801332434782468
-0.00026544863122506034
0.000523053496309717
-0.0009188365239415459
-0.0047384108895252765
-0.007474947186570667
-0.003174165187305411
-0.015439024727180202
0.0008863990012843005
0.002113453860392438
0.00065592450315249
-0.023088303984922526
0.002667005757054733
0.04057112818236536
-0.08914327650678006
0.05243064490190506
0.02150167605359872
0.009064107961363884
-0.012517359596177467
0.00015408387435519242
0.007249654807071721
-0.010582733643869933
-0.0006208328170645639
0.011133481392027047
0.03966736065084432
-0.04152195544865955
0.001704137256076052
-0.0021729108440026656
-0.015757953767082552
-0.0028011076211550455
-0.02043563729658207
0.03606187618860016
0.05099325014241529
-0.041706381170934774
-0.0010194115163354616
-0.005672132004861377
0.0010920389315448944
0.001801822669814418
0.0027449176273799756
-0.0015442642670745333
-0.0015916016979011939
-0.0035094052153948536
0.0034955630975846697
0.003399114124984441
-0.00024646360654071125
-0.0022376009986667463
-0.005297368589795307
-0.0009849034923056772
-0.00936286883992095
-0.0056919785810279275
-0.005216408414714061
0.0009145978936811197
-0.006265019845833166
0.011526923594853578
-0.009966552540852042
0.001832338205630936
-0.01461885046321749
0.009523192942959
-0.021964069691627966
-0.015641330025966273
0.00859436529589754
0.01192531519373293
-0.009086583453417396
0.0030526865194571186
0.006274825138828092
0.006916760476148613
0.003975623213981306
0.010005767969162678
0.015780138647882785
-0.005858138061208101
-0.011757571377487994
