-0.09918602808792865
0.04331863190360427
0.09228134440125194
-0.08224446973235995
0.07759470391431836
0.016568953497803556
-0.046522006785408784
-0.12060687647197998
0.036334586421156854
0.10893592240405654
0.07828175298823435
-0.05522046629480037
0.09196284881932705
0.07368081616809163
-0.024147796437416238
-0.021096076112247324
0.01349584732941602
-0.022753250386767666
-0.037876932341016224
-0.09998101288107812
0.04727323076920076
-0.0016971148605083714
-0.027321466376082973
0.00884293064788831
-0.021101367750809574
0.12048645673083046
-0.00022443853418695447
0.08312090545328914
0.05446007971001998
-0.0024561898409685783
0.014653708306561243
0.07271230606221145
0.004394797113638388
-0.01623340275776601
-0.029750421464738885
0.03356490501673512
0.011402267868812682
0.033379087828078254
0.09813831191297567
0.030526303571891563
0.03990690165625932
0.05965163694550364
0.0850970094862105
-0.008485885120812796
0.05783634245279547
0.14007425287055922
0.07103113227516604
0.007676402669550501
0.07312845762277019
0.04268769672249124
0.02444819285511312
0.16387974603799152
0.039121030851563036
0.026383630284543137
-0.11908750348753158
-0.06660048448233802
-0.13058086799109989
-0.10745434276283918
-0.07244611633585758
-0.08869668798050773
-0.02886566593598588
-0.11352395002820274
-0.08453671791427698
-0.015162963728287758
0.04920953331548255
-0.0526528855500929
-0.03804126617630352
-0.03488683113850768
-0.026274721819785064
0.0742026145895296
-0.03458721468483342
0.05431665671042609
0.0722810752902011
0.014990333015395221
-0.01575542987299924
0.038930716696223826
0.016616377917607426
0.05991025153751167
-0.03475622603738134
0.10870732954168812
0.1101783934481277
-0.20172578620004172
0.040438336451772035
-0.11495875195662886
0.09242998228496122
0.21959630955516568
-0.1470039565701773
-0.015512642320180051
-0.10238557075419726
0.4354789387587371
-0.13242563250695777
-0.08147440831591744
-0.1105642307297224
-0.2138816068321511
-0.15452809386291477
-0.20145636538317713
-0.1866939902554514
0.20075111504118323
0.33629701589215805
0.007821553902590725
0.06647121067046081
-0.03553516264756335
0.03355508208689565
-0.028972205154049017
-0.012649562823536199
0.06369842727797871
-0.06010802428352705
0.05789641874703324
-0.03263085964249053
0.04020047381052619
-0.006906825425710665
-0.01864859304755689
-0.03559257474105628
0.01733683565448553
-0.024853549389726313
-0.02173287417890061
-0.006902599572335495
-0.08953574608277635
-0.15434792123936011
0.02885274575659571
-0.07448138244995171
-0.09193148016465705
-0.02355440581392834
0.02150747731803869
0.07460940169787904
0.002384816338025522
0.024248306709617456
-0.024182304406073954
0.027728076659963
0.02445782241648046
0.0066619403371395575
0.008203230627216255
0.021531591332874637
-0.02796782982121844
-0.011239340066466116
0.015688847424224026
0.004093276904640794
-0.04695170558495905
-0.026371894263506238
-0.03337134791713895
-0.001813229952498268
0.014767666308301152
-0.003215427547073886
-0.0014729001995853871
0.005979665294026459
-0.05718958567603259
-0.028411113412466146
0.004699806546664236
-0.045206109689879925
0.12242444880279321
-0.08139348576218518
-0.02654652696131702
-0.012355372862491486
0.009810158891750038
-0.049189274514098456
0.07217305945046384
0.03818115682062957
0.06466576563360552
0.056561487343853634
-0.0323351282650365
0.059763008673018606
-0.024667873910490263
-0.048517307322401164
