1.2697469414433908
-1.022430318261005
-1.5009391627494442
1.244153967127897
-0.7765934787512149
0.7244330189558805
-0.96497250647433
0.6578713400658892
0.6795182070892595
-0.31697504764039075
0.5282454204237801
-0.27491885960495577
0.821037161666527
0.5062040410396162
-0.268608214417868
-0.00685178493323863
-0.9466690110315323
0.08370038043799599
-0.21166988370839568
-0.031146636731635317
0.012089612407380646
-0.19336818622866056
0.370796648529575
0.35093760541695457
-0.26584927253843094
0.14157966497643884
-0.3391568213865003
-0.24097000688068532
0.4269682246540439
0.0038638784584774035
0.35377780443569196
0.039935254929799324
0.08354743226162424
-0.17557555624067994
-0.5498215527262913
-0.2561603794456879
0.6085550420933887
-0.013417823522950213
-0.0651682009558303
-0.0660243106188964
-0.349091847842053
0.11949977885655731
-0.05514728668892892
-0.26137459891280457
0.2796431464197673
0.9373281550284883
-0.6926035586487433
-0.000364251628998679
0.11198590392410253
-0.479979087396306
-0.6876670583456689
1.4059017596911678
-1.4601676835665591
0.02683928768930656
-0.768628688587781
0.40617543802209705
-0.08624028511323595
-0.18052560125880487
0.8830862818928319
-0.6095626607067379
-0.33990262639350166
1.6069119225384905
-0.5285175006406773
0.3528430554302653
-0.40916097649023636
0.2256520758328186
-0.3221008495186908
0.08655996214848533
0.7810156943399325
-0.644177304832801
0.45791435300319705
-0.3399054201652034
-0.3176372603836309
0.2433519257301091
0.30399105638173446
-0.2228527511509752
1.0299130364849476
-0.6907931561049044
0.2894190257387307
-0.8836754680687455
1.2689847851552287
-0.7417374526289898
0.349882809840981
0.026792362892797822
-0.4261874408102125
0.558806530820475
0.3965075973694231
-0.2751112128076575
-0.4950404811534349
0.5513102020024753
0.02103371226968562
0.007102842332693577
0.012098780108981482
0.00416115027569211
0.006499336410313449
0.016933636855348735
0.023634316179184364
-0.017709301759276475
-2.3179623185488493e-05
-0.5172194860801809
-0.07105013764972873
0.5805198889554422
0.233845639733102
-0.10938019229196264
-0.4026950654431311
0.924133951335074
0.5567769556581303
-1.0072894961532504
0.10516629194060893
-0.19144701315988286
-0.01707269431873045
0.045080045313753335
0.10335817330473346
-0.01180318820838112
0.2123502826010946
-0.29313355731397944
-0.1885899865085094
0.4955912801168171
-1.2717136359200687
-0.024370401619112844
-1.1528844424322489
-0.42433622615184274
0.002219816227842142
0.6919989726856279
1.755796772530769
0.49867234227052293
-0.4908643354876517
-0.2157742424469418
-0.9293353529832279
-1.725504704497265
-1.3590153473055955
-1.1546515015684833
0.4744064848195243
-0.28987913391886944
-0.826468824164228
-0.0287800942469858
0.28204497694795183
1.45890780136095
3.0368501746810206
1.777365079174958
0.6396302017296268
0.4822111261443715
0.06319919782361258
-1.5909953931401286
-0.10456203535672773
0.04866602629542561
-0.010348341313123522
-0.037175209618963194
-0.012282780387589428
-0.18078447481547824
0.1171629354502779
0.06991085640523101
-0.010076570353252146
0.057269625492042675
0.010134901886425225
-0.007990281619125336
-0.07346218416652363
0.013375271870420341
-0.05659162659742018
0.013582695625497673
-0.11536528757927013
0.15099747189150653
-1.1670343872196411
-2.0026337967145857
3.8064504570570556
-2.08691614351228
2.5204389363613746
-0.7206736088788904
1.8278709285979848
-0.32511395432058005
-1.91927082429617
1.4252453709930704
0.04020780447869877
-3.0296806437483417
4.447407113471023
2.5012587433187097
-2.0953747034151684
-0.8238535512893483
-0.6792177752356471
-2.3841508389831003
-0.8030650124827122
-0.23753117595257095
-0.7878927914846242
0.9568097609007199
-2.2397596247134097
1.0036431010444822
-1.6173340210105676
2.5735657954893547
0.6427791507029557
2.3966529165212735
0.8913515926093497
-0.7069848444250519
0.3262242286995158
3.027354556420357
-1.8558333146540504
-2.896367096073587
-2.6562676494453874
-0.6213064315050757
1.416180748060077
-2.4252892025915234
-1.5623476076128493
2.573692478045012
-0.2301495793236206
1.6108976627014278
3.6115627782396493
-4.1347229441475575
-1.3699403086371862
4.348413743159281
-2.517599434475454
-5.104584629938081
0.7458922756314871
-0.47070620434228777
0.7195858314884449
3.7674222358719813
0.5765309248477056
-0.9465376569835315
-6.971459558923706
4.713090602321785
8.184650186096924
-1.9992942027551914
1.2022756232614555
-3.033368013317157
-1.593711790744344
-0.7850218447515848
1.819132405818836
-2.650722321593051
2.1854029137764304
-0.07544906982770481
0.581154727464778
-0.4425459588090377
-3.1917521384713665
3.020563551439177
-2.6684663211878785
3.6693345790122853
-2.6618108690613473
1.1577650974269675
-0.35074759831784946
-1.8353528602543234
0.2300390941193508
2.3495803286350996
-1.9809860163206943
1.2306232063945046
3.6092093548981135
9.84911259121764
-4.83464996780208
-1.788365276378056
11.79412680252465
-2.3435682408913174
-8.63147070464703
6.245975342758926
6.958359352760862
10.752714955442965
-0.8638698814302022
-0.2786434634759844
-0.3655700430030631
-0.3060052980803584
0.045410687801040184
-0.5215945414243157
-0.8911164495667971
0.8597995418560817
0.27365026950667315
-0.3813743400515524
-0.6778254752187816
-0.22960050197051787
2.413912139740047
-0.5222580377760887
-0.8567756159530686
2.4582742561249034
-0.5289011457732997
-1.0741829659692754
-0.7640989280871558
0.8370412158804125
-0.2669846010367737
0.2010583019666733
-0.947192485795945
0.06485712825298358
-1.3599537472222598
1.3374257050803378
1.390403888676433
-1.6236754409355758
-3.7853762062558918
1.446959924206292
-2.933694046977133
-2.953579624541923
0.6314718320992587
4.071732712954287
4.657769616263873
3.5303369282106027
0.3482736458800405
-0.5999087016256254
-0.060717876950904394
-0.6893932433290321
-0.2830747007939302
-0.5331196077178703
0.774900926756576
-0.2861193775610244
-0.19546969963518684
0.371649634467657
0.4492379652599982
-0.031332130874217226
0.5523376695159378
-0.3152161111607606
-0.0716776448462205
0.3442740578207892
0.17907961179005677
-0.4297384906246951
2.1024747784611173
-0.6445089885463103
-0.5060452433926933
0.22049520664829161
-0.5046538901158996
2.722909583758959
-2.3411677182148303
-1.0000385738776292
1.1684665587546381
-0.5373644433252226
-1.1821295330474426
0.9154689754349292
0.8122588315025503
0.6162239102450808
0.07653075691625665
-0.42149549281995136
1.9506136707905282
-2.0053138530788295
28.32998296425919
