-0.038070121642742316
-0.013626008075700084
0.10014230720403201
-0.061087603704173224
0.05296034540962513
0.02228397647246154
-0.03509198847477643
-0.03411935871516957
-0.00957775269891587
0.06846531252539713
0.0406266769503242
-0.0942905350704468
0.08117995358849801
0.02608543356374687
-0.04175144388143734
-0.07716647248797806
-0.02102319797363985
-0.07249511991813647
-0.008932300592987798
-0.04612381222988856
0.01395732453311112
-0.00980109522307619
-0.032627351552105006
0.0324602369467904
-0.04418839666066016
0.07032779599716288
-0.006666589232707881
0.053724555630512386
0.03288064980303253
-0.04862059964391668
0.025601390373344822
0.03350279199774168
-0.032565613875962685
-0.051215455268305315
-0.07176504404835103
-0.009298843390823621
0.06722023420450747
-0.003184208836259917
0.09356616588241483
0.03485328055765949
0.009958672758329748
0.02951511686444863
0.09538498056465734
-0.015411894414124515
0.035505102186667734
0.16725205993459474
0.013968352116373517
0.05232495280314071
0.07178052936944702
0.012996316277260573
-0.023715609676046114
0.17282574195847936
0.035175183802971084
0.031573386845491706
-0.20410995873547633
0.01899607045675532
-0.12567439636358654
-0.1048898973959198
0.0001819160067489185
-0.08277553626079155
-0.10466738603923904
-0.07949393984218568
-0.033284339670798885
-0.02409944960720462
0.042679495205755834
-0.021520820722500774
-0.02190803845336861
-0.0019288980398020077
-0.07198730042251905
0.08001205586601093
-0.05305541986158446
0.08340020707994841
0.050125033647113064
-0.005311291562767401
-0.022683337232457516
0.029174721989578056
-0.02259294629690734
0.031315572329356695
-0.03770581554880625
0.09228371112876196
0.05783867644530161
-0.13748671191289638
0.058679363784611194
-0.10081867596889098
0.06573145680323063
0.2495037332420169
-0.07538638790592533
-0.009144453189262079
-0.09135074588122145
0.595728700221824
-0.0065492085865700095
-0.0016914391167633437
-0.0027113455710138863
-0.002502556190256395
0.00244937375989456
-0.003224589117311804
-0.007230891384097928
-0.003320444574519621
-0.0006282716014532258
-0.0011664594506530636
0.014573577589440367
-0.007349333104572374
0.0016786556677906245
-0.01778715207460752
-0.0063016033121291795
0.03379502397983038
-0.06189750423832621
0.03745430513255271
-0.0037547866623198977
0.017527458667297817
-0.005770085931785567
-0.005218707033727927
-0.0005276317141167452
0.005026661084119694
-0.01355866424258697
-0.013674984511432318
0.012838006799133963
-0.06629708669722674
-0.09536838326924817
0.09409393140310426
-0.07470738077587133
-0.052536307387538485
0.03564024786219186
0.07772332253241299
0.12822370760186266
0.06066576640416186
0.012724021570563092
-0.020506757643616744
0.013127140206258395
0.011393559207713948
0.009621809292431987
0.008184304493165453
0.011270984734790027
-0.013564550143232415
-7.432719322496926e-05
0.011804940323747069
0.007936266718851212
-0.022968882216209335
-0.012014706485636918
-0.012703407136939066
-0.0025444163164855035
0.009006565144754994
0.0015665584808352852
0.004212898888495837
0.01405049542703124
-0.002415397892576033
-0.016491244336811192
-0.00504877993156935
-0.015311879174993985
0.02104373265922593
-0.029989107976921794
-0.01656838829481243
0.004281663827359983
0.01107200071408482
-0.020327896894403185
0.019369229849604274
-0.00021852948226153712
0.003262958920686535
0.0088074331823926
-0.008177838960005384
0.03349985515107695
-0.01563675525069472
-0.0014301336279328443
