0.46472652217525673
-0.1776642991411801
-0.22631437357175532
-0.2116833566084242
0.015322471042261098
-0.23041009347670388
0.692763770574271
0.7007238530365828
-0.5387985061501295
-0.04670646553919415
0.10502206845166416
-0.023241158741047267
0.058620005998550995
0.0092423085974231
0.09987915048724307
-0.030850313401009233
-0.16887496061780943
0.005463423108484895
0.0825820441294936
0.16685551020617584
0.114845946040113
-0.04939043779963044
-0.004630637470111659
0.03275771144705906
0.03882194194019711
-0.047127528873153315
0.12786275244330503
-0.06284906063724637
0.06011015045203969
0.02777359654515366
0.043729120176520246
-0.009739347938558133
0.07212607195497973
-0.07867693125649278
-0.03877838717333398
-0.0012332040314776166
-0.07955524500997872
-0.034256329024390825
0.036588370466020065
-0.007663990085573706
0.016828741726052723
-0.03360789049747015
-0.02337913653598968
0.08350840006361365
-0.0035540938900544597
-0.10020978003890196
-0.010596494060224363
-0.1424952352797575
0.10662911026235064
-0.06801073172891271
-0.014291912022763063
0.27655907014098235
-0.4205623723102454
-0.03760123786276076
0.10198806126644999
0.02730092854459063
-0.260311146027776
0.09030188025746062
0.03345585359462726
-0.17598310543502843
0.04799522364015838
0.03234286199947036
-0.0416756685791939
-0.19061875699645298
0.14293780619447266
-0.14022469110850713
0.0025052671556859765
-0.07995634464379565
0.07574325576293747
-0.09881555779633867
-0.015789314284369003
-0.20881689956280555
-0.14162416394920518
0.16561430679077996
-0.2438017725053743
-0.07764790293329787
0.14556618100680666
0.08911960615546015
0.3821762364133762
0.36139952588491625
-0.9713557467369178
0.013891476534324881
0.010209944538402049
-0.0010774939795749215
-0.007572657845965437
0.03730592711948752
0.015085953864208627
-0.0010996906630664877
-0.02128342357281871
0.07538752036318319
-0.00181549316946879
-0.0010027691887334893
-0.00231890485157762
0.0013666275605715408
-4.139413348942886e-05
-0.0020177785717552313
0.002943741753200786
-0.0006444276307035613
-0.0024800790512462577
-0.10945185243595872
0.16468857132014567
0.12407204533573978
0.04657855151311832
0.03539368330401421
0.16490957414049343
-0.033162206854494745
-0.4231182851900629
0.20026745439039598
-0.0017977807071434557
0.04659139194042444
0.007026791026051668
0.012918769849299147
0.012845019068291092
-0.044727061438121773
0.025602754045621467
0.022738688729700904
0.0700279542749251
0.33526469985160523
-0.29549878671586466
-0.11097682550563162
-0.23315830013639016
0.06062418007740388
-0.3613125813512732
0.3973269975085334
0.2151488990615115
0.005198949796083039
-0.6221105705748218
0.1400861000745916
-1.5902565132785982
0.6422396358167324
0.9077450318238365
0.09509232862711413
-0.9415923082822175
0.4182012882532574
0.2948013952978635
0.47103071757513837
1.0948614978852726
0.5531886688910218
-1.1160906820822745
-0.6664195335043794
-0.4017706649041036
0.2527887342086169
0.22516454588335472
-0.05393620584281492
-0.009024149342752018
-0.006497809503183795
-0.004916277848501654
0.0050384478107232894
-0.008563453679936694
0.01170759124998941
-0.008517497450566368
-0.005808412746255104
-0.03022767814746147
0.005086109033708359
0.011284434800240583
0.008524812160130235
0.036288744283128054
0.01367014706430541
0.023061147560958582
0.00034680979713227426
-0.007047729617934742
0.011223000953984144
1.529104649029574
-0.541752970793952
-1.2573163332273933
0.7338955046184424
-1.1602713975465138
0.27466243954780123
0.9537218746293192
-0.23722633635077167
1.1151372556107328
-0.38424589991752367
0.6479169797372502
-0.40759207986892754
0.44295790534450474
0.11748585283736977
-0.05110973797836719
0.21104662420444548
-1.1733669084676586
0.1662278644131426
-0.6952218391673839
-0.9889577790281071
-0.3939167449937461
0.37068965791485675
0.5338671064783652
0.31526223989612134
-1.0579368186963551
1.1328794473282675
-1.4529431975729934
-0.08416895437271539
0.12602470753297004
-0.19951961095510162
0.12382098079205271
-0.15355848684117518
-0.2506024500125965
0.018989566779560714
-0.2559647056765367
-0.13077035316631486
1.554964138221864
0.31180804539656237
-0.4650268985569582
0.03789847078369518
-0.6165638828304543
0.47620543684417765
0.2610107590498045
-1.3354151271843286
0.5041133409689059
1.8925645188006912
0.10928083395610286
0.12310279578756134
-0.4943701849686629
-0.5811765308239318
-0.7114483666358492
0.5936721444892616
0.02603356926882057
0.45985640304481373
-2.172063143868879
0.17265447311226453
1.7085256643295583
-0.8371997869957766
0.7081347354869846
0.7693874327082694
-0.6823848362085528
0.7317781506986314
-0.07874700802277224
0.9255279158707357
-0.7930164221403441
0.3954296017949167
0.03564608491345562
0.1689538475378126
0.2775469724889407
0.07803043287809487
0.7116072643513295
0.19692158931950388
-0.06391719686540451
0.39043304938675444
1.196727391504803
-0.3983651114743468
1.0151347583857464
-0.7187093422237805
-1.1671517263397992
-0.6083075849522502
3.5942686087668134
-0.8246556957747271
-0.15003072903002954
-0.034707283702553535
-0.017474930163005407
-0.4340613439872982
-0.3591561486345535
0.008584005030586107
-0.010278581799516377
-0.9782496136386152
0.1217508626121735
0.06182050514006481
0.13575913626770797
-0.07292641687354182
0.025952632917392846
0.13621672777377056
-0.15625468500764036
0.02353429694692236
0.16404955012002734
-0.9273711199424377
0.7986310405366073
0.7259740828867938
0.22771187609332447
0.14882259798043376
0.5012778047432271
0.6111691792356017
-0.966422182215872
-0.17072754942815546
0.136627146094383
-0.5390827973864694
-0.0027902167366576046
0.07564494722482484
0.02807734322830143
0.30616856355882427
0.059149797953964814
-0.4516821225473371
-0.8480177152536708
1.1377812118511927
-1.4455525936687021
-0.3221809685492077
-1.0181699041593946
0.49378852442236293
-0.5947283270121198
1.2687850582202642
1.251961429607511
0.36251984094142364
-0.9841847184664756
-0.1615170384611741
-1.7012631414368904
-1.5699528739064317
-1.258268758983967
-1.4910547388216207
-0.22369715090037529
0.20468052581546456
-0.5115514914808639
0.8983605966566137
0.8491877094257554
1.7717654478228644
2.7110211383547402
1.9188661497769766
0.6423242267553926
0.6180740227896131
0.14055934731421313
-1.4981595413551227
0.15744485557212293
0.18786634191722945
0.08237552308624502
-0.21085673877539007
0.13968047644268008
-0.38956567529405756
0.16041245020246037
0.10151815879728016
0.5936775389004831
-0.08219394763782119
-0.1804892709526591
-0.05103003591630663
-0.5097967580348939
-0.27311660953065003
-0.3836804647384367
0.013176578850055312
0.11348755933171158
-0.1392563359779332
-1.9960399073275872
-1.10028742366909
2.580078323089834
-1.0721298474879533
1.4918556061005899
0.7187096733820018
0.11465770912241255
-1.4465725855593252
-0.40180623998915516
-0.45368107754836084
-0.1982732397805403
-1.6938190501150183
2.7242197904006153
1.1141441223974609
-0.9335334950449877
-0.0911290448803773
1.4224012324569284
-0.6194346874190851
-0.3613418906608447
-0.6925442367209678
-1.1601118570634614
0.06645675919651096
-1.4469134634001641
0.4171005697748779
0.4073697219925092
1.5892662472602954
1.4957826895110504
1.0678124934914344
-0.032036202105453236
0.7408054973833123
-0.023461189330954153
0.9084463793717373
-0.30497624879200363
-1.230888615375337
-1.2336160660275286
0.024213481622035644
-2.3140422258393154
-0.17645092441872803
1.6454184354998804
1.4284006214945564
0.5473397911590581
-1.0944156846739246
1.2902888136048882
-0.6493635260044012
-2.079974180323203
0.8962393145535702
-0.16951107809158364
-0.3120813794990327
0.07878593550566565
0.05588548278981297
-0.23368160669903104
0.772413727735635
0.10198516635794229
-0.07867066087860551
-1.3158661965484266
0.5986228040814325
-0.2633937910858374
-0.04711663287586411
0.6291947285690087
-0.34033715016803656
0.2212977861744525
-0.11048811219223813
0.2982231847122061
-2.4190293701386287
1.2799209145645731
0.2516245242343562
0.40059047470382014
-0.5253526370702304
-2.1733263155717553
0.9239163150733966
-1.227913514957571
3.4797374985487433
-1.0516575964599426
-0.9496780592579803
-0.7045298439200283
0.6966256583473236
-0.5225750480724266
0.2115365384808497
-2.130940466413022
0.8767104907290689
6.671314307230913
5.472263031710287
0.7323720546055277
1.0524390559244785
2.9052647479902602
0.7286292455908467
-0.6584344895630784
2.753259418546554
5.449941719975628
7.205855064423224
-1.8476816938739082
-0.5462921153460883
-1.7310898895238809
0.847666069250978
-0.4940858694610238
-1.9910241658227676
1.5467439625133346
0.00886567682338102
-1.5075880218271185
-0.5803574612438297
-0.11858924461653077
-0.09819261956735024
0.961225458928141
-0.6913518060111455
-0.013221498916734872
1.3363873942234017
0.1923023419748735
0.219599569370543
-0.7795522201945657
1.1985289491848234
-0.415463711407265
-0.4122729693445689
-0.5240718422597413
-0.19207074860712411
-1.2910597286148904
0.8809714330445542
1.6319957120931643
-2.0007480238789705
-0.8122158447970157
0.6361952993955665
-0.3891587373090651
-0.9141803594191182
0.7845291717516482
-0.6599780014069153
1.5271905949231321
1.5209728766156554
1.3717511449363098
-0.8568239889169533
4.103138151650643
-2.2067533128278436
-2.46663295890214
-0.8647351604770906
2.5473703288299756
-1.398991566162555
-0.7447364261291812
-0.32899323514408874
-2.1333612681878296
-1.711126792041785
3.132707578853743
1.5984748923647818
0.883567777920671
-0.29615828728648164
-0.2426680134819486
-0.1462788674513195
0.32285003420331304
-0.6658895006132052
-0.7940546966017075
0.8557662799277314
-0.35648331746738765
2.3189067730521367
-1.4680670918399799
-0.9216592272097448
-1.1698776045930461
0.31802463775284673
-0.8454975901908499
0.49586447873723394
1.185177669539625
1.18967605246711
1.0926537417301316
-0.25515064096622553
0.230231386543467
-1.0016306450717736
23.49165414108838
