0.07449677220560104
-0.26053102571733083
-0.41225850357452615
-0.6667901902994632
-0.43741098292636893
0.7361967098437151
0.7307039517578935
0.8465932943755133
0.587089466175462
-0.18524645513981483
-0.4226226813765467
-0.03790057403497803
-0.12487475396732181
-0.16079676856239236
-0.0034889386630972226
-0.24430404745935597
-0.24674022881912497
-0.2196000522015103
0.12970576650010046
-0.30065905776471274
-0.2294926193930403
-0.300043391196527
0.14776713676098402
-0.5485729348377584
0.2556520069333573
0.4662571108511342
-0.06551956721044531
-0.12437581557235167
-0.31917734687345484
-0.4102295993401727
-0.3638319831959113
0.23399534534409666
0.32373261230003325
0.7994393791414486
-0.28109047020903355
-1.0032744932056301
-0.38902380235912665
-0.5812197182762641
-0.6997064181875583
-0.13052939567310126
-0.09650563581241679
0.28203288266567644
0.3105300474119413
2.2363043455992506
2.7075666420875515
1.3824518832645771
0.7564444042836189
0.912771853451507
0.7976454160409171
1.367042991837116
1.4929720611001438
1.3630951947463745
4.084432915736442
7.093982617642463
-0.10327214997654433
0.37347910455253147
-0.2050580469273138
-0.27754887027291714
0.05785119361449091
0.5402199231067241
0.42064962986875787
0.7994643928109306
1.255333968790758
0.04626848326605637
0.013800582868392907
0.9566218502909691
1.2612764664254499
0.7997128788828652
0.815523823600277
0.8644107322859834
0.39702709218305127
0.6805076131258999
28.037245031720182
