0.053080430338572314
0.2084909064957311
-0.20942092073738922
0.16756393703514705
-0.4814370696961889
0.9888939991665979
0.14125507591060002
0.5114394408004024
-1.739625236784903
0.023677419783340113
0.0034510190104610674
0.056170077575184156
-0.5917697443031797
0.2609391406836935
-0.5774729918424885
1.8221793391961527
-1.060218897052758
0.48472023733002145
-0.8535227676418453
0.967574747096147
1.1861962255041942
-1.4473336697298083
-0.1716511506495159
1.4736087392658723
-1.4828101101635085
-2.937859493527117
4.362862945541762
0.3214797898955963
-1.2047302576265877
-2.519659714794737
3.0959432388314476
-0.4496656636991765
-0.9896977527663335
-0.6961394888613668
-4.337610682034719
5.746331417696068
-0.09410058495800183
-0.3057998136563269
0.2759856741803971
-0.9313291157859499
-1.7717189235738469
2.270634316316893
-0.368414569169512
-0.11170779812613595
2.363618812207631
0.2230981496328302
-0.40290241085533623
-0.054936904321012864
0.12033625307467197
2.224484557104213
-2.684212829417
1.2412618543303082
0.33488150390185123
-1.254200185124309
-0.9083875995495364
0.5673072631319797
-0.869027489058782
0.08901005253229155
-1.5454665826630762
1.1222077532714787
-0.03050410793375701
-1.4281502617374493
4.123092709476885
1.5891205148880565
-0.46688068671539057
2.439267737911829
-3.5876280239987626
2.9446755110143017
7.933105225090967
-10.598944390014763
2.6391424943251685
28.43924862147531
27.97304120048202
