0.48976952679105956
0.09249486907167867
0.33917374962395286
-0.9451734897892241
-2.6403944883208337
2.2696560103731684
-1.3900883935623871
1.1619367839568109
1.7198791062206515
1.0065861257569246
-0.6988591068188101
-0.23220772266748038
-0.40299318860362193
-0.02771243455319244
0.04777038220066703
-0.9132088257763487
0.38444739132361955
-0.47147683728577966
0.25041120096493397
-0.7870937084107995
-0.06810651461828116
-0.22270251020393866
2.5655726475734353
-5.337945295252899
-0.8830101270176245
2.254698298338605
0.9936828898541638
-0.1695141848345129
0.7348509511070355
-0.7719675241871711
-1.3494662843203282
1.574179699342679
2.1557980501938436
4.651867832319922
-2.6846810709717004
-3.6342955989422
-0.28124457547582016
-0.260418722799657
-1.4792267618157335
0.9825996760846814
-0.7370990607421305
-0.6266258087241441
-0.42414109399413613
3.1082854620576095
0.4167430798534931
2.3566262980255024
-0.6946828743584913
1.9530475603803925
-3.433814207776617
2.9993913475195053
6.7621032800545
-9.363036138818972
4.670683787118207
24.548637672456948
-0.49418118746341677
1.1230264126901826
-0.4875220879419522
-0.23947821977851466
-0.34540595419474635
1.016633128244815
-1.0587932227157153
-0.06777815737206286
2.195926001010806
-1.4054250065242342
-0.7580996435240225
1.2704229057428642
2.900126790854302
-0.25330668100398357
0.021099014224707984
0.9533070723614212
-1.0327420813550328
1.7620939156653421
28.473974394724102
