0.47820750520629407
0.15818028949614288
0.24472069985348324
-0.93519536304389
-2.5495999530510094
2.5431507617006237
-2.0077558494874244
1.4231081817859208
1.8770939126659396
1.0710644889075964
-0.7648649073967208
-0.2422880327231932
-0.4048501828844757
-0.018997791532465915
0.09129734744732833
-0.8499292503793706
0.32720838981851347
-0.5069023309977727
0.35864279939591337
-0.9667840226355232
-0.004460674455400249
-0.38180376976076874
3.427719978656652
-5.768036979878929
-2.017635506875887
3.1590085622521973
0.7836057304951842
-0.3665804227178978
0.9519178806529701
-0.789505323801687
-1.2030035075000056
0.4827717590537962
2.4296865265447907
6.492194613051781
-3.9413135881399355
-3.4707012538706015
-0.22818102569157123
-0.2695752007879861
-1.538944456619867
1.0715803339831331
-0.6682877551490324
-0.8702917628540875
-0.3558093426974754
3.196293798298788
0.24463037819411493
2.2803017950313826
-0.8014623947033683
2.1565278033320916
-3.6940680530764474
2.8312273634102283
6.982916431529081
-9.323631803092516
4.424516142328886
24.767688833192786
-0.5243750254544579
1.1722573884568745
-0.5085170554332599
-0.19333489338322957
-0.2725448202289326
1.024784054067791
-1.0644321253322842
-0.05809335348885794
2.1339685653126734
-1.476836427046712
-0.8192107166420672
1.3632835494572781
3.0187910584460367
-0.2114793465318876
-0.1770871051750319
0.9645056125388306
-0.9570901155022046
1.818840257370959
28.536680132701186
