0.5422275896567971
0.10784336263387073
0.43930262626952665
-0.962647712828037
-2.9096081773242197
2.441890835659078
-1.530699249552207
1.1812373372614253
1.9743914856844722
1.0585178553648056
-0.7747200926259725
-0.22266288263962572
-0.359814153057118
-0.01888159112885239
0.14559188507541396
-0.8815893351272329
0.365683228774387
-0.5421043282023579
0.2522092092529374
-0.8566414665881179
0.0017231479663905197
-0.18602952635982425
2.736359374304889
-5.515124659449514
-1.0966471785474623
2.328696362565983
1.0015851230977606
-0.2373825767995032
0.8395330938433265
-0.8459867031133388
-1.4530008187776078
1.6309709899388536
2.1469022886663436
4.906034721565427
-2.6783619489915167
-3.729558076307153
-0.22235290933711296
-0.2994902887990572
-1.549013868239686
1.0865588497502272
-0.7015325672750767
-0.8329185455771779
-0.2688140054123792
3.0612168017586274
0.22603531218634984
2.429428372654792
-0.7775264323402743
2.251939518292031
-4.120760854398681
3.1834384339930337
7.632184507084284
-10.482821129192297
4.366458113936991
25.541262383491652
-0.5538986716830878
1.1735691164461288
-0.5213343278492211
-0.3168619297218477
-0.13558710820996986
1.0474035531631898
-1.107099268873684
-0.09584882628903076
2.1839283024506098
-1.6578507095799753
-0.8903712327381854
1.3448846933858147
3.061609881449558
-0.33654841849095046
-0.09587492082604576
0.9627172468455961
-1.2115654932730557
1.9036981754445252
28.51468276023245
