-0.7614663958197021
0.674254753661711
-1.6080093203331576
0.20721514403254856
-0.8121509247891023
1.3678766277538488
-0.4340876540204004
0.5402566365642981
0.5102246141668185
0.3455222128732093
0.6059061672681033
-1.1469560896099122
-0.799162606573593
-0.13236580975177373
0.16225208008275288
-0.11738249873227947
-0.4024513905514908
-0.8316711958471474
0.1120677319239331
-0.5712392223819048
-0.22046743384274028
-0.08907719703612357
0.6509380200486038
-1.811710673622421
-0.2475403826215749
1.919605385271301
-0.4461508339585656
0.9831619784510015
0.1672186847801141
0.4812976016856134
0.1478409950993695
0.35541381911710834
-0.768312308315089
1.5150783451771477
-1.4281812284330029
-0.4431337238276009
-0.31639319949450695
0.04674103826696028
-0.7223848872459107
0.7934128579647849
-0.22745769275955988
-0.7501726927883758
0.009488062249527737
1.4199445542448974
1.9858039095703706
2.210736905194956
-0.2250141065378848
0.4812074114882079
-1.3755057663168149
2.02865366699577
4.468438729719972
-8.540106266142352
2.207853218268646
29.4617504001986
0.14054300524898788
-0.12957067984064038
0.02230460458316949
0.09909148514445006
0.07267707734761862
-0.31786098365858423
-0.2530582812831674
-0.30554863297639107
1.1033423408113945
-0.698150091944123
-1.650288486655542
1.9954638579814254
1.4464627443897806
0.30894922787079193
-0.32390617339975586
-0.27821225299600927
0.5759999093740834
2.2506970202529653
28.44361086055171
