-1.8069318317975274
-2.0975558192053043
0.22485846269323612
-0.057839683993854495
-2.1772633116355915
2.814053350543842
-0.1743690602311973
-0.24450516209458528
-0.5122862713254409
1.2843065320314466
0.4358446086660762
-0.6434924352962651
-1.264066031234383
1.6085388401147833
-0.4487205274867722
-0.8718864460576873
-0.6779371324816275
-0.442878803177983
2.1943075603294706
-0.870443901738865
-1.8334002019102633
-0.5136835136862057
1.5081166490851818
-3.3032937924371435
1.4285367825053574
3.2911288601475146
-1.939729444857073
0.5189041423065458
1.1449898822589761
1.7230327891224453
-1.6702047351674671
1.1060742529612515
-0.5865530955731533
-0.030930607299473882
-1.169842707700166
2.0240842348313155
2.4799683499050444
-0.5978391420453879
-2.1388800280401825
-0.5287196489536574
-1.5876898349984265
-0.9709171451723851
-1.9265454469629553
3.5371518014586205
4.429466957705004
-7.689370739686337
5.342839136096326
-5.719564018390011
6.654091024132437
18.636568327415997
-0.8490611990943575
0.4518935280611908
-2.932533214798503
21.623499634090386
-0.9371894339199559
0.5151574863154095
-0.36291378078635533
0.1678633575588251
-0.4977628373387516
0.6200230931546867
-1.4019683768680937
-0.4479799622258369
1.1493303861308575
-1.4543876201580164
-2.5779967669228787
2.4992057513217842
1.1350728531858338
-0.5575047429758762
0.29656219185762184
1.7194108308845817
0.7000923335032637
0.9200219618260116
28.949709625212172
