0.023050975886904503
-0.030428928872051515
-0.07939757139401848
0.37765345111037935
-0.12651327123030107
0.0008042609125457892
0.2689177535390887
-0.36818312707500966
-0.5251819758247861
-0.17960732186485162
0.26166600455935846
0.08183374835503865
-0.18594734180054648
-0.03241328007686396
-0.05834912006258312
-0.15758351961204195
-0.08105085940364484
0.006446175920445288
-0.2037921861446128
0.2743452958647534
-0.12506478555808942
0.07726854906891067
0.039153355233315375
0.2454663205014028
-0.2123391849783576
0.006707609036156231
-0.09402999030124366
0.08798765172859188
0.027634215093810983
0.1048986979593059
-0.17200189649442665
-0.10210519682648866
-0.2204287200894761
-0.03395476433672532
-0.018708764311572826
0.5243756509942629
0.027774858939604335
0.26313402499736577
0.34493137949292424
-0.15490721215129583
0.15014412430492105
0.41652017946889974
-0.20038039379790484
-1.938533266011751
1.3093321490558745
0.02891616692720012
-2.166983003007105
1.841186120557099
0.6589939848411343
-6.74138791540276
8.575182432887216
-3.245371222093127
-18.763959887041466
24.33152816183166
0.05550484101261314
-0.17654836636393217
0.0478191749323176
-0.048745911859633624
0.08915366922370248
-0.028380365019037828
0.017321397181656224
-0.13971546743967603
-0.14418165760149862
0.31193565531486156
-0.7877520575531185
-0.03105532807442018
-0.10997436536098502
0.15534771812154893
0.41000125826574396
0.09738070832877407
0.4278937174700553
-0.29928395823669907
-0.5360363974984416
0.4364830905000797
-1.061153721206466
-0.3295789826888363
-0.5025830631938013
1.2337362508537493
-1.8349774526403755
1.4523975608975437
1.134155570252489
0.5398801896556498
-0.051503119054166116
-1.8466643719875626
0.06606393105365682
0.08157370086672587
-0.23372192099006472
0.45958026731168666
-0.656900228813914
-0.21560147001512836
0.3991022779123812
-1.0792366667870525
0.10328577950132757
-0.7902052256383858
0.41609081606947573
-1.4461056080737091
0.4179104885853275
1.6712296393234751
0.2010775712253045
0.32301101029710466
0.4172730502224161
0.48937640479202277
0.29509676923888417
1.1481747629539272
-0.5196756428368773
1.7509354448291619
-1.5795902857075372
-1.8286007658112344
-0.5251319902391578
-0.24608969922188775
-0.6223228125199601
0.5666231532816622
-0.8580622855188477
-0.2381370863455491
0.6066492287987375
0.5837423908767452
1.8952188160108194
1.1930649727135725
0.7462816365153971
2.1875373733119647
-3.7782246280910114
1.7072644526869152
8.43891037838816
-8.373801917554017
-0.8375072620478777
28.700108794289648
-0.22498796672903743
0.8135038756702248
-0.27296760275667237
-0.23184413594762648
0.11555655423126879
0.02181135537111805
-0.3639176592558888
-0.24471954106038538
1.359254448980436
-0.6334585385094037
-0.9962131780339734
2.640028166863625
1.3177974941321295
-0.7024315892800658
-0.10654837346957932
0.16465403710906587
-0.04778545979761357
1.8680862612684381
27.642905071062465
