-0.6375980641313955
0.4433076660062819
-1.6901328796901276
0.10391978578848794
-0.42455759228944384
1.351716908669996
-0.29203680975735963
0.4389324734510516
0.515744251002002
0.19230949536322559
0.6806102084508587
-0.8792764293476067
-0.813728835422239
0.0574354262435835
0.0890174623390794
-0.26365602233181534
-0.2748447379503211
-1.0117171892364287
-0.06664727471253708
-0.6819999576058806
-0.04628058011236233
-0.17402488075631606
0.21912959976192675
-1.5743566079508005
-0.11043723074175639
1.7671276530184716
-0.32000765805020365
0.7580376317705912
0.5857647082447375
0.4283708981916852
0.45956120033289466
0.1032893504035942
-0.6912458454448004
1.4013033401371453
-1.4115803621382756
-0.40298575859429564
-0.33308571064889675
-0.13626946860312886
-0.6300198934349254
0.4677847867649729
-0.2565550894604849
-0.47909015459441523
-0.4072423551711669
0.7237568914839266
2.999044150340339
2.1941198828594892
-0.29522831916743936
0.22197966052504284
-0.5150335470623327
1.9415953436124382
2.74602089836963
-7.08958928380678
4.396118341956906
26.18373410304886
0.12854163161337379
-0.1726497180518549
0.06164453228833416
0.1940209393495754
0.09398581560368612
-0.29165691343117667
-0.09729346951075034
-0.20135570840639602
1.1118181682410964
-0.4939554830896269
-1.531761782756441
1.649061697968476
1.2173782933820185
0.15439768172074333
-0.22066448090812943
-0.17273758864947203
0.5900070752779176
2.408093404154323
28.305741021429643
