-0.9261724973228304
0.977625673570211
-1.577955674336559
0.32312014833459457
-1.0142567833931375
1.6472125415432466
-0.5376119073724563
0.5551621677674682
0.8112305256358264
0.5071161676607979
0.8879283720321907
-1.1780089396130622
-0.9350643114667738
-0.044087451500510806
-0.22419627298521005
-0.18216220464880226
-0.5692112328372528
-0.7087921201508982
-0.19365791439912025
-0.9788287924626989
0.06661500402390036
-0.29020607662432274
0.23843737988718994
-1.9379062027773297
-0.04439482074761722
1.9669368975614723
0.17165407307077263
1.1596539167546538
0.48713479862684506
0.3251475846305203
0.4392481362253531
0.7202406278250658
-0.5570539960984463
1.1745818242217745
-1.8848746398370928
-1.0517643846724014
-0.42428951228507134
-0.09098533355035371
-0.671784618619506
0.5640054168736793
-0.18461470269235153
-0.33393913327787134
-0.5836640163487613
1.0665205608365842
2.671953165139265
2.2436057210399256
-0.27027474801473983
0.531287929140183
-0.45347020544609135
1.9722796077678573
2.645731448030823
-6.699487969956609
4.642333011427296
25.715739225753367
-0.03953266652347338
0.1937150970983352
-0.13039107144328071
0.10250338355334418
-0.2817723150352158
-0.22944352899091083
-0.5114450160426904
0.14067353240990124
1.3763435593060542
-1.1351539221547373
-2.01035485845523
1.9721418077021264
1.4436388114000922
0.09614956770944319
-0.15960167354172072
0.021671047674093762
0.4534505291065067
1.876790412509959
28.18963647360466
