-1.6240823590629114
-2.8127747590973846
-0.012208100337601018
0.3434407561692769
-0.29854366313756847
0.526521410759123
0.5316354156008497
0.9332039261018769
-0.29094025238294496
0.5057971227968823
0.06460301061156122
-0.2650458432663264
-0.24124725704353656
0.470857537407313
-0.31967230722539747
-0.5711259755993262
-1.301003386101877
-0.8443267809077496
2.5469643705139706
0.09053636483169103
-1.9717635895377406
-1.3327376293721016
-0.5241193546367147
-1.0875847150629894
0.6064529579427147
1.184742577859585
-0.6490060715912037
-0.9180379432654995
1.3353560426182207
2.2918812539744993
0.14029765910855327
0.9355316282530441
0.44723413776065707
-0.8873372258236975
-0.5491881167216124
-0.123727596528759
1.740387041337957
0.28676200477054975
-1.2214266490365098
-0.21443321197447002
0.7025935416227324
-0.497942727606251
-1.8967523657969976
-0.029255651417504372
6.318234993521485
-4.644227926239697
2.765102186333543
-4.913829945162775
3.303848214829657
9.93996764113868
-0.3700563186874443
-2.056943860710592
-1.9910471311398465
24.919426465222738
-0.2780803523072949
0.4337324052630932
-0.40362770562754074
0.027562522995077072
-0.10489393168928775
0.45127442286296976
-0.616384822464586
-0.40038417111687286
0.8232989007012091
0.3927805898160698
-1.6693507126092206
0.08065012136560544
-0.3174444788927561
-0.4932411274779339
-0.24583027096565246
1.0685963190253356
2.328176739204055
2.732945046106355
27.849354830804
