1.1159757199451337
-1.323425637401843
-1.1557237224503905
-0.6189816134455577
3.350272288184685
-0.27833582948154195
-1.5033802814775095
0.08016077131558479
0.4309559756590175
-0.268376210565497
0.8006084005309931
-0.4558539816580055
0.8021487650369217
-1.0283162072777132
-1.063776146947121
0.6348075377014064
-0.666180879555994
0.7177526134602898
-1.2445288727243655
3.2237071721782162
-0.4132691419467088
-1.0579878347208833
-0.05009722901927836
-1.251813620738123
-0.9711649656716094
2.958949682380851
-0.80419381849958
0.05502848497818981
-1.2833212957348616
1.0987712590673275
-0.21460092360433894
-1.1969789558588237
-0.6712867185276647
2.2751337446977393
-0.7294428647995204
-0.18639880032389392
-0.08701208569666284
-0.14642498924447084
0.7944773750589912
-0.011140095769848785
1.9203615955508386
-1.6334928193330003
-0.7560795898571218
-2.864221359627183
5.43094432660048
-0.025392597726244102
-1.3418080744718195
-1.5994302586876963
-0.05506389150945552
-0.04488551339391892
0.7082597794459208
-1.2127827974533276
-3.0249570306219837
37.58133418016853
-0.2233412772515441
-0.10743378606055018
0.1580633082212687
0.2707724787675549
-0.0978849905518387
-0.09153946116017787
-0.07752787056155293
-0.2921181469583315
0.33602065998705716
1.9029774272315
-1.9306134990824781
1.3136970411885105
-0.770406012061432
2.056187794025055
-0.9813906515626203
-0.6096045650314393
1.4991929485960533
0.2411137129117866
28.604157730534563
