-0.21174610481012748
-0.04570415329769556
-0.09780653452964713
-0.13706957866617656
0.35402233843091746
0.20954546658098874
-0.17688035870384816
0.5060894474080464
-0.6243034613487038
-0.17423091184820932
0.24996763187784965
-0.07623212794732168
-0.006653533541857395
0.00950567428651416
0.12325177098315192
-0.08518934320047925
-0.26018702458597703
-0.19683761904272187
-0.15741276508413138
-0.3906667439672894
-0.06015165715485306
0.10652950045256973
0.24245611723509486
-0.3037178018704507
1.065113946765483
-0.40962106545602583
-0.5589184055749536
0.3898740124856865
0.24688463957968373
0.06331429957431214
-0.47503260861940527
-0.18661447435381093
-0.6854837818713777
-0.059455818426215154
0.12036696885891274
0.5271556832810911
-0.470494752114663
0.6543279651050184
0.3158643690586669
-0.5054519747688765
1.0895718187554064
-0.3278752943052991
0.07138265884582104
-0.8574658880347411
1.2870846881253384
-0.5907340203327158
0.25706711172748087
-0.15770803439092723
-0.32139831898520765
0.5805001565989235
0.15902126722269166
-0.17133416655957637
-0.48992161621149266
0.6339349118143329
0.14818684577872623
-0.20293329707395272
-0.03538274995526325
0.11830450203646238
0.11178328915294983
0.04862076328404904
0.2016355251332276
-0.2590209413303973
-0.5160662481902439
0.32390900859703503
-0.8219387030178316
0.07324002639081217
0.07969595241571538
-0.26357699221530884
-0.22369417244259948
0.4599164401612062
0.7227536280444173
0.41226114529977054
-1.0514119768105012
-1.310470749025652
-0.17874843870172913
0.48185573116583
-2.429944560668555
2.15426461698966
-1.1578070571460948
1.1823230213836449
2.0532607339057036
0.6893494989625311
0.8885780057939568
0.4805303584037919
-1.4215716440896187
1.7765276005395334
-0.3893054987795871
-2.819205146255491
-1.9334256471508646
0.5669345703576466
2.1809608401453087
-0.07782015459993329
-1.6505674713950658
-2.0449574477735015
-0.15787582455705285
-3.7612161150326515
-0.5112002630449988
3.6982503388820827
0.2985544731044197
-2.5409436878801976
1.3604640916505462
2.0750010964782204
2.809137962610781
1.6185417809049216
2.2489740491431003
3.127736978167825
-5.035021127358079
-2.7730746705347102
-2.1747306143845866
0.4070516603330415
-0.7845574138062421
-0.8806796658907489
0.6794697986761427
1.332291820694295
-1.628096027985833
1.7693316749490857
4.105071908367816
7.26416360986145
-1.566433090722781
-0.07652772763413612
7.472264168038465
-2.0193558922773414
-4.2937102401135325
3.7394049306382744
6.790441307270453
10.702912975852364
-0.8180734284490985
1.161335022543907
-0.19645268755369238
-0.48642128096529647
-1.00932055916854
0.07121817636440515
-1.087091454231009
1.0032438900432261
2.0691652723588763
1.6086859404856697
-4.395605243239351
0.3421786372233115
0.5909149833593188
-0.7789282833436836
-1.3571145853258744
3.008059563018431
3.5113447585569824
1.406575706605008
28.014962394209626
