-0.9374248873311807
-1.9033922420175997
-0.05043967247916649
-0.13166982836809285
-1.4539708865937573
2.0913482272832917
-0.92351449443763
1.962865778813325
0.553876331592367
0.088628872912171
-0.14734029249622008
-0.02554266763656051
-0.7032243032121711
0.5233067178912785
-0.017893180260099128
-0.6094982462170366
-0.7361594600647283
0.9916146254382804
2.7621194233753217
-0.2762881880900558
-2.2770262085949007
0.2872402361173437
0.48701029642500143
-2.9335810964757902
0.5671517384165075
2.182841363586563
-1.4837382725734953
-1.4347735855013937
1.1073696696134845
2.2888553880412204
-0.3984616246428135
0.9863163234183784
-0.299630972151709
2.423545188964058
-2.7019823161458563
0.3283533393191739
2.0395043043653285
-0.16097328952912324
-0.9319742731073578
1.0363921821514148
-1.1934197986644066
0.3491184221981535
-1.6558226426362679
3.6337143095884255
2.195164930314482
-4.427088989807704
2.007964170319109
-3.3037295135122062
2.4591026508655554
10.028769673435175
-1.105728673814511
-0.318256349220962
-2.9836763139614164
24.56164840158579
-0.3691106979179454
0.4547015803382366
-0.15807616022988835
-0.40234167697626055
-0.14189721827187343
0.09084591257463022
-0.41052588007608054
-0.6171444804898889
0.846141649437761
0.8226119414667594
-1.5216653968147036
0.25676904459898287
0.4466846689281205
-0.29614491438245594
-0.7860731955047435
0.3858951117875761
1.423413981179034
-0.5465152652914912
28.62192981113412
