-0.5790163115764597
-0.5515373447782049
-0.21693444459146938
-0.13568320711744924
0.0036142848000540128
0.44772633187658406
0.5301246153272344
0.4371575120122124
0.3172662540499562
-0.20733829696344294
-0.37974365376422514
-0.1414311493049357
-0.13125223448476853
-0.06266265791940162
-0.1143654817465702
0.07096094629072588
0.22268248656637543
0.354094672130663
0.32454502128837576
-0.06246892232262632
-0.27482888713958625
-0.34965035690157165
-0.31573937700157123
-0.2994127737885542
0.15498651412925138
0.27434421116508184
-0.037066784161458054
-0.07949393897950699
0.00984882155534926
0.20456224673472134
0.15312084766858353
0.18876686269811024
0.2854421388747531
0.3880617413575141
0.15464686731368826
0.014199511426135198
0.65397979011784
0.4114586841575938
0.21126400812813034
0.23200039336080705
0.18650021188431007
0.32639345699516015
0.709456296536305
1.5961411457107568
2.3070616085335005
-2.1354966322034987
-0.1560753405760145
0.4328411099050721
3.762988475362611
4.9461642553802605
0.6511713496276227
0.35675760268661516
2.6050835911125123
12.363742977471075
-0.16911272039085137
-0.16156723771423925
-0.309155981932341
-0.39101010896792554
-0.26252233085769106
-0.20713454379611637
-0.05767223577307
0.1587200078306889
0.5870952842856567
-0.06848597521601818
-0.23259567251359345
0.06096392821088343
0.058307516421101116
-0.009969056403329887
-0.019012716324915805
0.2273326570969891
0.305527874292373
0.208323875773421
28.816299306217765
