-0.9989817335023119
-1.7251147722938638
0.2754571651511536
-0.4086850885798916
-1.3038381858988262
1.7508386005621717
0.11007348219140983
0.9894215738399744
1.0240708188715144
0.06316828764462698
-0.10631358320755335
0.0323796513644068
-0.5436501991200332
0.5429302151976451
-0.2109225245999939
-0.6260938417354656
-0.8335902427995349
0.9969764983375311
2.5577440664234894
-0.401965058352736
-2.0881674896429216
0.19325538920428684
0.5643312894424496
-2.7898842171679092
0.6982181525332487
2.0428043980050274
-1.1242456313584466
-1.295423825171416
1.0276389055778261
1.929541581741408
-0.1738141499446338
0.5281945151448129
0.29655340053422624
1.1404603262293755
-1.6147994197227442
-0.24745497409587044
1.740640512961172
-0.08250283404427536
-0.8775936156873878
0.4621506521176919
-0.6887548392696076
0.0864918090291138
-1.1105631108472345
2.5669285227119674
2.843789343550815
-4.14266290185039
1.6623375639578881
-3.0067914235312125
3.678190935133433
8.516773076489036
-0.9175022290701085
-1.5000316934006013
-1.2497027081135632
23.558292158897295
-0.3945052159574701
0.46982870207498917
-0.33953694800596934
-0.2773868603836151
-0.12034104029495973
0.10750061112271059
-0.4550026843585471
-0.4393952135675612
0.8649209471743192
0.6528824428573675
-1.3286087362440107
0.25583632849746396
0.3442603718188552
-0.1942476000684246
-0.7432057726761453
0.5012587176018707
1.2729651510557487
-0.5307310739393268
28.51166253361915
