-1.2563715208833386
-1.4557394035790927
-0.04337733493771909
-0.2693386956336842
-1.1834382090280449
1.441250001544294
0.17537479662855007
1.0397281144344324
0.686059827837955
0.0595543805410711
-0.2420675236436237
-0.08725094668311249
-0.5585006467130071
0.3847368909417812
-0.05892021997216168
-0.5536289471896015
-0.6099761644921525
0.7049502126454713
2.3321270127271028
-0.2874677202459245
-1.7340571763128816
-0.14186307950266688
0.3609540693947108
-2.1939832431861683
0.5010201449656208
1.5545347776521679
-0.9852536707484947
-0.9037287391175001
0.9296539363516051
1.539709598788667
0.3377126246425734
0.5220500276675816
0.2000042949073229
1.0254699201821489
-1.1093798191912452
-0.4525236501748278
1.6048146277502287
0.022704720881169847
-0.8159650917596805
0.3594184442840146
-0.7313029775168891
-0.03408795627819761
-0.9090764683700963
2.5878843287342206
2.7561686245151558
-3.39186262438318
1.5080933962087117
-2.836115622849136
3.1923026663733984
8.639288992562333
-0.2579663237030087
-1.098164390804676
-0.9315844890773447
22.461713177340066
-0.21267371971734758
0.36704527126423014
-0.24721636437406447
-0.4306633362569494
-0.08818552071557603
0.027051813928187406
-0.38885639511907705
-0.57147090499255
0.7487417402075541
0.5779391871530857
-1.1826426128908356
0.09178615710283233
0.3047265038725327
-0.1784185428826605
-0.6450051799257878
0.4310751571028248
1.0152234908975164
-0.2684010677191843
28.63250296810976
