-1.226944721200279
-1.5575276817186396
0.0544890434696524
-0.38244425671659504
-0.9871240854023435
1.2853825388301316
0.050431619958339266
0.8772599929258103
0.7266101287860741
0.06989149256799891
-0.3094097073621634
-0.06792552217697095
-0.5608801079413445
0.5464073333833279
-0.17888465258046427
-0.5447734804117321
-0.5569940195424138
0.8700210698098813
2.3550088811121737
-0.29220317580602334
-1.758287620230158
0.008792323688832105
0.3129982246484328
-2.314653888362472
0.6376526063350396
1.5061650774582493
-1.0275218615285935
-1.0582393028591064
0.7861442185876066
1.5990675707559852
0.2774440405946956
0.5631324858017686
0.18279134705612665
1.07136138516412
-1.2664259127301851
-0.3863935663655543
1.6992761985821885
-0.03200525666705295
-0.7966393273447062
0.3248715549570028
-0.8334743397644215
0.010942075021313244
-0.999562163049555
2.3745036742325962
2.843481250231443
-3.761083752805684
1.2718951186383936
-3.2920569415667567
3.7524627582227734
8.754276761434062
-1.149922024743141
-1.0956102891439303
-0.9641076158156325
23.01296756319708
-0.3353802539887062
0.4492119578690742
-0.14744486940484447
-0.10919338229172834
-0.06963816959349868
0.038517531068476135
-0.4343634792711916
-0.5820292563057738
0.6868677040523234
0.5523000022783884
-1.1888959691381549
0.12116352206385173
0.18308748707766975
-0.23817666263188783
-0.7303503815239101
0.4159260760908279
1.08548700758985
-0.3232521739109792
28.29138995040876
