-1.1030745814822083
-1.5584633721981773
0.01840118148106932
-0.19135520802040595
-0.9927911365095351
1.4867803575606553
0.11412520828896792
1.007742069334034
0.8573385641590378
0.10820847457569693
-0.12410174447281092
-0.03480372661134441
-0.5362588672466505
0.5191503472049668
-0.19440458975254876
-0.6243443060566665
-0.7580625049147854
0.9498961890191584
2.45609598015474
-0.15172536757314709
-1.7882982925554527
-0.10177204551392899
0.43867883711781336
-2.3902570563451437
0.7221393618351643
1.8370074180255662
-1.0362484787228072
-1.0018665742479194
0.8012423211517912
1.6941413972639379
0.16865952897214592
0.4175175132813628
0.20772299777419592
1.2873846534924578
-1.3980420375284692
-0.1246804424175376
1.6359364341446307
0.08652561501552972
-0.7846291714986137
0.36250009810672557
-0.650828395552872
0.11848083896558648
-0.9388596969709724
2.6547985971353802
2.975991752737393
-3.7836696916067565
1.4960080862014198
-2.9417411574784684
3.633470476383962
8.488921070611061
-1.135665810012326
-1.7298711312216222
-1.2811712462505225
22.94188926633404
-0.27037261561638926
0.37771035858574487
-0.22922216330561074
-0.2157114934540549
-0.13375297272854014
0.1853300822255872
-0.32429452042905393
-0.33532757144057534
0.7265710869528791
0.5810623170922755
-1.1827730942718357
0.21404641435132127
0.1883043731946254
-0.26976967310101824
-0.6974265456792066
0.3958737172806819
1.1292771712579244
-0.4428863466844302
28.361068389469832
