-0.29357205295900474
-0.3248761727280174
-0.08860475314480787
0.002874453796751733
0.19458068535486187
0.39591778435560143
0.5440364760406168
0.4775186456586377
0.3853404982440777
-0.16319084988865956
-0.24478159717345543
-0.13167662080318274
-0.1347543917889732
-0.058726964036015065
-0.10139461352810147
0.1527924073022847
0.247895167119609
0.32164406903052806
0.09845090716210658
-0.08064072058813056
-0.16659345447616955
-0.22303676310500273
-0.1853666241905547
-0.13704378573608406
0.21748016001201448
0.30027792455911434
0.14650219294071942
-0.08251587338397541
-0.053491699587996634
0.11685781118003105
0.09969884461830682
0.1685697340217755
0.21308235836134803
0.3290541000121876
0.2138277306089964
0.09433214768420384
0.4947242024964235
0.38954834450299336
0.30974860182068265
0.34955020015127236
0.3656660219753985
0.5057000309142409
0.8096808422784773
1.3911515362102562
1.8720394583370281
-1.4451970978853856
-0.07171372254765178
0.9645669781856093
3.4637165128828884
3.5519533253574593
0.853140066564884
0.8458621721904404
2.6585143616085603
8.641807590250638
-0.1396719493307427
-0.1075948110516234
-0.19450264779826598
-0.2192046617709082
-0.12524630019242733
-0.08294879369742607
0.10244122481629016
0.32644797866984304
0.5946017020444634
-0.05330015901318094
-0.1582314126697415
-0.026037793427872262
-0.04411099449486785
-0.0145809697145653
-0.0366339010630534
0.20723641025088368
0.2693668856434604
0.23215201010117023
28.49352351371177
