-1.1442594826330963
-1.732409927190465
0.26313604814793334
-0.40997540696338314
-1.150097038162581
1.6233449870932182
0.16164423520207905
0.98741218903558
0.9141717658019655
0.1262199071286176
-0.215532176962056
-0.01630528505928086
-0.5543881603792687
0.5513394551198826
-0.21538309795459354
-0.5494399169453916
-0.7624703068527032
1.0774213372782753
2.6478082554417655
-0.2846353732100921
-2.065093671560016
0.15166890397037416
0.5727482784794077
-2.7705411418507198
0.5758632321158319
1.9870268128277624
-1.2979303580423198
-1.2829338252315599
1.1222252709373364
1.9363487949195684
0.015450246358416641
0.5605456051225166
0.20270327367634688
1.2757917738700912
-1.6218659172857388
-0.23853841298165934
1.821867674251989
0.06509964340894578
-0.7361775722365742
0.4920356874774104
-0.5522017686465185
0.16017947217131764
-0.9213750971840913
2.639279518288081
2.9228048380693052
-4.175213056370307
1.6316177238990577
-3.2640275988261487
3.7028456735209163
8.636939362631379
-0.828978520026898
-1.7363906481334248
-1.0451319275901394
23.101469275306638
-0.2935197231165605
0.49883085020076945
-0.3023383413941361
-0.220403329878334
-0.11983157987234955
0.03444954301746937
-0.5713296638040202
-0.47687490779667957
0.7246175067164585
0.7068850038070996
-1.342535154361534
0.3206090009900278
0.4456721100097549
-0.11337131747355474
-0.7486850535305013
0.5992450487561609
1.1655267825180489
-0.47136715032188303
28.644096537582616
