-0.4571673186650178
-0.4735765848486458
-0.20883047012362863
-0.08951730046774868
0.045586941973009
0.4147473427279936
0.5117853775121627
0.4729403582607506
0.3182327102805557
-0.19035700918753734
-0.34100930771880256
-0.15377358961324014
-0.13716445627165183
-0.11852732652108389
-0.12728044399847963
0.08679993027046135
0.24686275807091282
0.3009421663021936
0.22563718537920222
-0.0495093994743005
-0.19995803388063169
-0.2653986576313757
-0.2396643899445875
-0.18288829176904864
0.18785473366221603
0.2798472851035145
-0.003048557488121894
-0.07350996764360976
-0.01554695586273586
0.132038954922833
0.12972243369220904
0.18133001729472487
0.2934942288535308
0.3997469537580443
0.233554123984224
0.04961107521796753
0.47479122720506806
0.3112771770290451
0.17579439171731548
0.21159178292920697
0.20186846439012354
0.3511312537109341
0.7043516147459172
1.438935235991366
1.954403212974176
-1.8670326435441353
-0.09471933683765633
0.9470392036426375
3.603794289608114
4.190003812527334
0.9897839231259843
0.7715598726993835
2.8615990197816594
10.650116482222522
-0.08294352507584496
-0.09160584642374028
-0.17821183086121498
-0.2563042113707987
-0.20295857518013496
-0.12886443664287722
0.05745572178661914
0.20546630861471665
0.5632455686845809
-0.06847990416874784
-0.21703586921567028
-0.002666626268708448
0.014893673507217304
-0.04003636260607938
-0.021999978345166087
0.1978826622181086
0.2818337703968465
0.18919196222200338
28.70002615874672
