-1.062057687636365
-1.633856603278589
0.2940448010274743
-0.4587606281989388
-1.3599818188414123
1.7744176488629
0.11499560308037399
1.2647650398205357
0.8905083386806675
0.19460144996168563
-0.1898208224974071
-0.004300578196893039
-0.6426504121834641
0.5212106412357778
-0.17589365359820797
-0.7109626808088093
-0.7978408277390444
1.0520451453674022
2.749543089233422
-0.32106006098724954
-2.0056130494507434
0.016700246864551495
0.6529732149392226
-2.6260681987509176
0.7300835393399053
1.7945346984229773
-1.1589171756369583
-1.332412424127124
1.0962202098121852
1.6698260063192398
0.06404536407648528
0.6055697234296654
0.42366854004323334
1.2632746874734693
-1.4377295434649795
-0.16520550197472542
1.9375039089840844
0.04981965804547996
-0.8985074211290399
0.4308056715317476
-0.7136393105175134
0.1108042237434908
-1.1451023254543284
2.382861207265133
2.938455636727246
-4.515356992952355
1.301358094362579
-3.1884922485658405
3.2625210548596755
9.187189494192674
-0.8067352874475847
-0.7962162757823898
-1.097458815930722
22.855957127207034
-0.27337380968373654
0.5198799540165179
-0.36174837660891584
-0.41823218406937307
-0.05389056347027489
0.09747788332396361
-0.44433843006802
-0.6308430678559416
0.8349906552706345
0.6913951301806075
-1.321301403645053
0.3641162178176089
0.3393505149023778
-0.33020999432965475
-0.6309290570626048
0.43951142355362505
1.1153298642671075
-0.4073151021167629
28.551732178052607
