-0.7041395718394159
-0.7118853166263968
-0.2319415847198655
-0.19538370412850928
-0.03078246806069164
0.4657879895439167
0.5865423226208578
0.505146628239281
0.39147087001578856
-0.08470662927650181
-0.361110735110662
-0.11091825759115799
-0.1662871302856664
-0.05041862402272622
-0.24651617075005783
-0.04362125320252761
0.1084075942742351
0.38778913930303305
0.4997357612328554
-0.023126548863496885
-0.33896954057207057
-0.40145674104132073
-0.37184134058396767
-0.48489958341786843
0.1263924183870327
0.3460029747254905
-0.08701829622387068
-0.08186115404524942
0.0962775174771375
0.35080963204548476
0.2387497938633918
0.26768807554800184
0.24073929204182046
0.3693140694246655
0.07233877309430183
-0.06455933316569024
0.6994034051640976
0.33224059556736363
-0.018507853793850063
0.03810137765835369
-0.1024202205879759
0.052235757609913024
0.5005679068314915
1.662482847516437
2.532049202405416
-2.7032289357976613
-0.19249327530861157
-0.22899793626619813
3.8118440550863544
6.246062646070367
1.0552490600811781
0.04377101757106051
1.3807203631713398
14.227736491627033
-0.08254428965263627
0.0013733749689811368
-0.23835095698797082
-0.2636584649540582
-0.21930761896393483
-0.24328983520966999
-0.20788248333205733
0.07818709395943114
0.5980530854645051
0.04413069110928621
-0.344669205865609
0.005103793481151998
-0.006986097357517644
-0.08129423077072848
-0.18592142821779825
0.19133736627777342
0.3327369677832677
0.27963299201671926
28.4828332380411
