-1.019707779888158
-1.1299159474974647
-0.18550421974443357
-0.34903120217812666
-0.3629159359684694
0.6249410416123296
0.577306728727833
0.6375264991745386
0.4499828040785562
0.09613465074030979
-0.3863690881353266
-0.0782990925353225
-0.3081569960474708
0.09783727042205213
-0.30245155599008855
-0.22159574709716454
-0.11455220120905635
0.541610499174005
1.1509962684213983
0.05589332385771657
-0.5939735568277649
-0.41381108888277046
-0.34235032951027794
-0.9175871529473795
0.30558281860415154
0.5217218640964788
-0.44302397664823057
-0.18552198456409763
0.25865605273340103
0.7608878252547343
0.42991942074977446
0.44744646030690455
0.3040045524899811
0.5782594042946391
-0.11313743372891696
-0.22606438747811083
1.1462693460602749
0.2991431952249427
-0.28754867026196296
0.01634056900242425
-0.5013765441409073
-0.19933271461554494
-0.012960603167796611
1.7731939534638708
2.575082060270245
-4.178792188884939
0.7349702109321553
-1.4921964533526395
3.7446860418922943
7.702275491542253
0.09966561272485286
-0.23017651103944498
0.7574374681111385
20.045469527629717
0.006856848228974089
0.23869806027642204
-0.18207909925841415
-0.23170211626706028
-0.07869105212190795
-0.2648822633046889
-0.29507041434362746
-0.2157151610274665
0.5360159951233512
0.3293197168018538
-0.5556963777526807
0.09560361226399892
0.06195893353132889
-0.07585770917328738
-0.28347545424902515
0.26748607687595505
0.4735137151791144
0.14614301014067438
28.652313236265424
