-1.22205170154241
-1.7568924026267274
0.05192522465574937
-0.2276346235544112
-1.2038780145404753
1.5495025995143887
-0.09035076316538383
1.1842085155219888
0.7632649861308066
0.07204696867348165
-0.14891381840329365
-0.11716486449686742
-0.6400942282801331
0.668153318492936
-0.017912459945049815
-0.5039401281224948
-0.6707893501897095
0.9123677291593416
2.635452713888018
-0.4781702623924906
-2.1868067024051756
0.18147884789593213
0.35200681881705037
-2.6502485312896797
0.7083162264397771
1.8977350386725418
-1.1803798415215052
-1.3025630176655265
1.1321522615349644
1.9327159050812954
0.2011445751997454
0.48941342072621274
0.3069507043226281
1.1311688312278647
-1.4765456184957644
-0.3627495718968106
1.9036841110939624
0.09017242797746693
-0.7485504393686956
0.339206220354798
-0.7687609601897298
0.06242395472370945
-1.1804017892053826
2.484260154723511
2.9721698909475074
-4.1370245367497995
1.697662321319591
-3.2011997564085624
3.6943360034119817
8.888090813709004
-0.5690074409439799
-0.5447693364771122
-0.8575008756863594
23.258525082024875
-0.3749001255243602
0.3270679563400084
-0.2578088426795155
-0.3882030778138979
-0.17503497667895854
-0.06570778532927862
-0.3019625753299631
-0.572188181985537
0.8904028613184785
0.8085313121091681
-1.3562075638237474
0.2743211243129686
0.3040984305383135
-0.23596555574993383
-0.6873291036292459
0.5154255398937474
1.2833188813576972
-0.609649337149256
28.608659745287806
