-1.2109819159304935
-1.7144093402814462
0.12409368731217864
-0.4989340500438901
-1.1208817738120767
1.4755902562717846
0.09347018103106516
1.1382803762474736
0.6428111757775947
0.07521598510814101
-0.3343616699445603
-0.012303768204043615
-0.5204910010491518
0.4376047199724186
-0.1414606685989696
-0.6140273278626701
-0.6390789895429781
0.8332758011620675
2.2929656063878174
-0.27638645962276354
-1.6326002295101867
-0.01313365528684968
0.27428517497015803
-2.3189642763424674
0.5951796435769702
1.419193581705436
-0.8343124491527464
-1.1815846221673496
0.7933922837810756
1.614165743251259
0.2890259984571874
0.5301790894090053
0.4756120571238109
1.0491398250523092
-1.2342257262185492
-0.42408066642634334
1.7648565310179516
0.0341255774569171
-0.683866229125669
0.4582530298366633
-0.7581626711738488
0.062398338427192335
-0.9563968161031192
2.5244781004424044
2.797972156841566
-4.354043138183208
1.1358046298257598
-3.3210589660403502
3.2598684728395417
9.00158398759581
-0.7049536759825482
-0.6160893934004457
-1.3465001584530658
22.658089464929045
-0.23563220776539068
0.41292160565163244
-0.2201742299784072
-0.2566049222188236
0.034733014557925934
-0.0920362242109943
-0.4360866138766213
-0.6887614094368859
0.7703091621303989
0.6972828778787641
-1.219464001175572
0.1464111930174059
0.2584988166114143
-0.31408277453223277
-0.6530968566665577
0.4476296053701656
0.973877187874593
-0.3423160058448743
28.300182468680365
