-2.4925069043722483
0.12435526035676762
3.7702954630738588
-1.8524298028077872
2.721488198426455
-0.9643631538820794
-0.7481372829024119
-0.8312063641708208
-0.23952211922894123
0.6157568457879419
5.208075622788053
-5.3798026278199655
2.0517584358008047
3.3225229858067133
-1.7642465600963515
-1.9933203373067643
-3.0737511873047545
-2.1347626901390155
-1.111385291298136
-3.110791646558351
-1.1601188203086243
1.2491792236229888
-1.477652607542935
0.618497711351912
0.8400205491390367
1.4444347804966158
-1.5774198790346823
1.2630930988845108
3.6972584899527425
-1.6979505333645808
-1.8001932444454196
3.3296768905277494
-2.320946372363796
0.0283290219051967
-3.7502266687458317
0.9320899282293227
-0.17043722757503554
-0.34025261780930516
0.149923035509497
-3.148711636698128
-1.6710401286643426
-1.9730896249005856
1.8647514997772765
-2.0391466553599797
-0.3243226689924963
2.20251031607663
-0.6658052582432342
-2.741112945466145
-4.163891025060219
-4.76993144774561
-3.562157910018094
-0.24200075032689833
1.0439102235309181
-1.1586669414353525
-1.9408354830382555
1.5356121624689365
6.414489760024187
3.2891936022168844
6.689474053658769
3.855035171919188
-1.9274814899180914
0.46297482063146445
2.071162180668587
-1.1972959753492238
0.4274405338898063
1.869181920843882
-2.263463326478889
-0.0014115049138286075
-1.6720715987550052
-1.0802002215230022
0.9852544007666839
1.178802317759236
1.0621616722268052
0.47295701390503286
-0.3161483162356445
0.49671762983465956
0.26256464573150246
0.6333139121773527
-0.6305953902341801
2.944522511712545
2.846174093009914
-5.310900324742435
3.5211708785476117
-4.8451169444236335
0.6494808647021121
12.599991225075346
-2.7109415674434163
1.2044488297578655
-7.870747724536742
29.90561880227418
-0.17332401575542886
0.18101555982398992
-0.49760952434527866
-0.1449491607781845
0.04791782778006923
-0.0024772476285497697
-0.5222887892822677
0.1415772421732855
0.4460532500506903
0.6395584151271019
0.7795613499189976
0.6279319206992273
-0.8850970845456941
-1.8023218704981225
1.570280782927667
1.7870487621080802
-2.850210146341868
1.1542178265993397
-0.3629792064278605
0.516942517882229
-1.1284351256545901
-0.006402202637861598
0.3889405742067473
0.3424697290757162
-0.9655756062736648
-1.4401058998458853
0.04091818704002556
0.7216828207175203
-8.670531994696786
4.03974419409194
-0.2798053979842409
-4.742180176873772
1.753036018094928
0.633215119559759
9.066877413897258
0.9208126145550705
-0.08976692170735937
-0.7360401515999402
1.336204660446492
0.5222100281615926
0.06595925495863109
0.3021795074552161
1.0186063380654387
-0.9483839510763856
0.04660058616946626
0.9894004998892882
-0.3598225658645646
-1.1754715040398875
-0.6864086037633044
-0.63948513478313
0.3219958558606952
0.45160306474453915
-0.05345127812103
0.28966618119270626
1.14782697990558
0.21933808299130042
-1.0720675712854044
0.3149987929378466
-1.3976669656193763
3.8909186091842596
-1.4708855862293553
-2.723099742488165
1.5562704711164437
0.26131274311233343
-1.4678896238281547
1.0592833838513418
0.4724787142596872
0.6237807055949007
-0.422963241393302
-1.1885372463367128
2.820850747442789
-1.3891833672765825
28.156649059920127
